{
  "architecture": {
    "input_nodes": 4,
    "hidden_nodes": [
      6,
      4
    ],
    "output_nodes": 1
  },
  "weights": [
    [
      [
        -0.6821358357474494,
        -0.4706037584444266,
        -0.7089646719133785,
        -0.15297890020423938,
        0.3074742136843154,
        -0.34730958072822504
      ],
      [
        -0.5255688438728895,
        -0.27153305242292286,
        0.47041121467902813,
        0.2116177661515045,
        0.5714965027900519,
        -0.7169846128164685
      ],
      [
        0.5295359113230902,
        -0.4349971583169295,
        -0.7266696969464692,
        -0.38514912330748585,
        0.2834822960230091,
        0.01820922859449741
      ],
      [
        0.4782979609529194,
        1.1423509283344229,
        -0.8072004140678024,
        0.038579135828350465,
        -0.27658610939614264,
        0.6227370482667507
      ]
    ],
    [
      [
        0.39261754298005597,
        0.7010858450404088,
        -0.6626132705434644,
        0.05056622687233537
      ],
      [
        -0.07249491034042646,
        -0.05692162441101173,
        -0.8719403555272418,
        0.2990523304079331
      ],
      [
        -0.363597364071047,
        -0.2847435536244254,
        -0.19141810009513588,
        -0.0931038937102632
      ],
      [
        0.22638042983988407,
        0.7734521467063951,
        -0.34915101049478103,
        -0.7260808080566437
      ],
      [
        0.37482008266348404,
        -0.4463344827663305,
        -0.36812530242486047,
        -0.1630353768729963
      ],
      [
        -0.10037059084107856,
        0.7192971081661892,
        -0.7684339961821436,
        -0.1149854259766115
      ]
    ],
    [
      [
        -0.6307293023163726
      ],
      [
        0.09908396276212583
      ],
      [
        0.599521374408102
      ],
      [
        0.20400609354609248
      ]
    ]
  ],
  "biases": [
    [
      -0.3591143723510547,
      -0.17117983154879785,
      0.29410765618809276,
      0.44509742636380545,
      0.3190582722194552,
      -0.4817284836629421
    ],
    [
      0.1446472302589104,
      0.7492868553186754,
      -0.35706887627719835,
      0.4320111932779205
    ],
    [
      -0.01654606629325426
    ]
  ]
}