{
  "architecture": {
    "input_nodes": 4,
    "hidden_nodes": [
      6,
      4
    ],
    "output_nodes": 1
  },
  "weights": [
    [
      [
        -0.05398429223593644,
        0.559887899501239,
        -0.332582401624156,
        -0.7712588608980161,
        -0.5074364656322017,
        -0.4852749859703528
      ],
      [
        -0.3085486791369854,
        0.09728270649432441,
        -0.28037901914649904,
        -0.05562178951573272,
        -0.6320641581958248,
        0.27542121737257597
      ],
      [
        -0.59136689443179,
        0.014925566429010911,
        0.4409490462728872,
        -0.32167900572863967,
        -0.13333980631492715,
        0.64996382824189
      ],
      [
        0.00927678343685369,
        0.14672696420592443,
        0.37338916797454635,
        -0.10684164096282464,
        0.5992416362907983,
        -0.7037626037960133
      ]
    ],
    [
      [
        -0.08274197233960719,
        -0.35047301499594036,
        -0.005801504790855512,
        -0.658530200543434
      ],
      [
        0.23659945857350134,
        0.6045334727878693,
        -0.40318562179221784,
        -0.4558544068190937
      ],
      [
        -0.7363447689208938,
        -0.7388410891667749,
        -0.14801048639637657,
        0.3887962087309219
      ],
      [
        0.3460257753976116,
        0.5117628580226934,
        0.5739576366064841,
        -0.13669577144524483
      ],
      [
        -0.43065271407579037,
        0.9726539663858114,
        -0.6939105288945676,
        0.6848685905623915
      ],
      [
        -0.5478637841866022,
        -0.18325056071700646,
        -0.6861318784003653,
        -0.6845341490510889
      ]
    ],
    [
      [
        0.02515569720735086
      ],
      [
        -0.7083425676981353
      ],
      [
        0.7043642776168774
      ],
      [
        -0.9539911584742409
      ]
    ]
  ],
  "biases": [
    [
      -0.05997030704627088,
      -0.005977227191860172,
      -0.05708744144860696,
      0.5100495986979581,
      0.24488039127368155,
      0.1614138115866444
    ],
    [
      -0.13428430230094682,
      0.22263699880825724,
      -0.390427395479008,
      0.07578055156723595
    ],
    [
      0.38804783435586276
    ]
  ]
}