{
  "architecture": {
    "input_nodes": 4,
    "hidden_nodes": [
      6,
      4
    ],
    "output_nodes": 1
  },
  "weights": [
    [
      [
        -0.26852600729839565,
        0.3168659986843736,
        -0.6447442919921659,
        0.7676606478038426,
        -0.6230042847375195,
        0.10742836270822896
      ],
      [
        -0.6793645277547556,
        0.005378633854862185,
        0.6251319471751327,
        0.7499882481216475,
        0.5187795443582803,
        -0.7503565958086269
      ],
      [
        0.6774135103885384,
        -0.48352652996098516,
        -0.4450851109973373,
        -0.7684963502805497,
        0.054741190824392535,
        0.4555926413905888
      ],
      [
        0.7124728211591398,
        0.04586833023387439,
        0.07862122725738495,
        -0.4411183531048142,
        -0.23484412608474803,
        0.7466637699704962
      ]
    ],
    [
      [
        0.7126188805789154,
        0.0623610540752947,
        -0.10787444732088373,
        -0.6424673269181603
      ],
      [
        -0.08864677627477542,
        -0.41430731862301656,
        0.6458619647418171,
        -0.5313821107275327
      ],
      [
        -0.7099746531892652,
        -0.2384811951002822,
        -0.2707130456799902,
        -0.41252865659390714
      ],
      [
        -0.31635002485425134,
        -0.005373090479613721,
        0.5585472440829841,
        -0.08144571146273254
      ],
      [
        -0.1638375679162726,
        0.7548325137570684,
        0.11815222088342398,
        0.37186151358762515
      ],
      [
        -0.5398929299654917,
        -0.6832062478702807,
        -0.1289816948151629,
        0.32315545579514904
      ]
    ],
    [
      [
        0.6710075086866873
      ],
      [
        0.9674550364217214
      ],
      [
        0.8858049153213425
      ],
      [
        0.34870433494329933
      ]
    ]
  ],
  "biases": [
    [
      0.09711061126454112,
      -0.3754757682986208,
      0.26973079301920394,
      -0.43028058034951505,
      -0.3478931097772338,
      -0.11508098685991255
    ],
    [
      0.38293054401484616,
      -0.1504471915690434,
      0.16394463390715466,
      0.26319186718552495
    ],
    [
      0.06800986212862098
    ]
  ]
}