{
  "architecture": {
    "input_nodes": 4,
    "hidden_nodes": [
      6,
      4
    ],
    "output_nodes": 1
  },
  "weights": [
    [
      [
        -0.6189701256490567,
        -1.0162723658580886,
        0.6208507375656511,
        -0.3098091624609704,
        0.13833008738424651,
        -0.2508560167478259
      ],
      [
        0.06208647940584969,
        -0.6974074265388113,
        0.051448702498136656,
        -0.17355578306893965,
        -0.8649335965148882,
        0.32573859234035146
      ],
      [
        0.05722503403875617,
        0.008294788988938831,
        0.08426614869096155,
        -0.27563189844389757,
        -0.00898191775642112,
        -0.11243534958357763
      ],
      [
        -1.0418233478025953,
        0.6405716746451978,
        -0.26433819448996515,
        -0.2623939787070331,
        -0.40461808579412023,
        -1.1150025901606677
      ]
    ],
    [
      [
        0.9083177176702277,
        0.14597172374262174,
        0.08460103810168873,
        -0.6555082769268926
      ],
      [
        0.0716213211825859,
        -0.3709106385850318,
        -0.5737958299426231,
        0.442704737865425
      ],
      [
        0.17237713728320253,
        -0.16116979279711913,
        -0.27620802008868256,
        -0.002072929092052811
      ],
      [
        -0.054460865551484584,
        0.24085458479185357,
        -0.7243674520800322,
        0.21962672334760464
      ],
      [
        0.26569722258614126,
        0.8424314111118055,
        0.17705716156727147,
        -0.0996663566213421
      ],
      [
        0.5298927209704594,
        0.8087575355915417,
        0.06966686350262112,
        -0.5896857991856593
      ]
    ],
    [
      [
        -0.6228347103870169
      ],
      [
        -0.8602911430029495
      ],
      [
        0.38310119670167503
      ],
      [
        0.5855347207894431
      ]
    ]
  ],
  "biases": [
    [
      0.688773387490078,
      0.7491582230125677,
      -0.053368161655017975,
      0.7815263919719715,
      0.4663186507179329,
      0.22663400759003602
    ],
    [
      0.2642017907964847,
      -0.156766859923931,
      -0.5376208618001418,
      -0.5269962459343344
    ],
    [
      -0.1675875434839183
    ]
  ]
}