{
  "architecture": {
    "input_nodes": 4,
    "hidden_nodes": [
      6,
      4
    ],
    "output_nodes": 1
  },
  "weights": [
    [
      [
        0.012807494478198345,
        1.033035651261642,
        -0.9351818614936535,
        0.4326651876279503,
        -0.8190415900023926,
        0.24620796322538377
      ],
      [
        0.21300200970369054,
        -0.26708355347724677,
        0.1712980960505085,
        0.49785238677559857,
        -0.7101223185405732,
        -0.41000315859586955
      ],
      [
        0.12952787119498443,
        -0.5832976022641352,
        0.22321123709884028,
        -0.45466614039841824,
        0.5645389431752191,
        0.21067269474664566
      ],
      [
        0.208108210956721,
        -0.7801716073208126,
        -1.0033921757538347,
        0.24166357530167396,
        -0.35464518862903577,
        0.07793035988993532
      ]
    ],
    [
      [
        -0.682554865804614,
        -0.13500836463726945,
        0.7639440880814319,
        -0.3732964599649639
      ],
      [
        0.5523114646175538,
        0.014676918046261561,
        -0.5677124564901184,
        0.47094901752688495
      ],
      [
        0.840057100318544,
        0.5855264957488883,
        -0.7367472584150746,
        0.10891486102476988
      ],
      [
        -0.12877920980846794,
        0.06948025029599837,
        0.6136735800987272,
        -0.24518603269097436
      ],
      [
        -0.18514605222473768,
        0.15300155832236356,
        0.5870978416040159,
        0.24907066792116644
      ],
      [
        -0.31331406630050596,
        0.30856244216080375,
        0.22069285502850433,
        -0.38511023047271453
      ]
    ],
    [
      [
        -0.2425102646152694
      ],
      [
        -0.8178240882643099
      ],
      [
        1.6623992517691089
      ],
      [
        -0.06116806982718004
      ]
    ]
  ],
  "biases": [
    [
      -0.6127413614408562,
      0.27008058803075746,
      0.509270853688014,
      0.27434391467937735,
      -0.07356745562773664,
      0.8917718875735157
    ],
    [
      -0.27005972458196376,
      0.36216690787997896,
      -0.10192477650086681,
      0.6928117113163055
    ],
    [
      0.1656411002945803
    ]
  ]
}