{
  "architecture": {
    "input_nodes": 4,
    "hidden_nodes": [
      6,
      4
    ],
    "output_nodes": 1
  },
  "weights": [
    [
      [
        -0.1026243882777921,
        -0.8213553553485533,
        -0.6144993192348553,
        -0.6911733642457722,
        0.6538063030944359,
        0.26051064474816954
      ],
      [
        0.21273648157933198,
        -0.20691220778341973,
        -0.3550701930515558,
        -0.18709523334052144,
        -0.05749162628940901,
        0.8404277418756381
      ],
      [
        -0.5987103595920829,
        -0.05083589329561497,
        -0.350762752950554,
        0.037651260182298446,
        -0.17299441655416128,
        -0.4478987902888152
      ],
      [
        1.2358398231726953,
        1.0154956764745957,
        0.7467000957948894,
        0.8817793799133532,
        -1.2910422242972688,
        -0.7164634318305317
      ]
    ],
    [
      [
        0.4360766630712536,
        0.6099999422896416,
        -0.06315219634692107,
        0.6235750353242407
      ],
      [
        0.6452020313815324,
        -0.06527666742110226,
        0.8991652872841764,
        0.4014685748359984
      ],
      [
        0.19664211078576266,
        0.4539909219414171,
        0.412436299540362,
        0.441169551778858
      ],
      [
        0.4217026833656875,
        -0.9110368408284729,
        0.6309746268669875,
        -0.5841083310926966
      ],
      [
        -0.06161887691949858,
        -0.7529114741772662,
        -0.9288838212388961,
        -0.09074465041873961
      ],
      [
        -0.4706034611377259,
        -0.6829876197653814,
        0.07633542389280643,
        -0.1772599588077422
      ]
    ],
    [
      [
        -0.6964324466572261
      ],
      [
        -0.16803775597206758
      ],
      [
        -1.2054713106679984
      ],
      [
        -0.8806146817431554
      ]
    ]
  ],
  "biases": [
    [
      -0.2261664738562114,
      0.19210004408045722,
      0.3989778090676609,
      0.2148161430409443,
      0.3026335367494323,
      -0.05164893135387232
    ],
    [
      0.2391270607176662,
      0.34011780368953715,
      0.15376464578303767,
      -0.08082414144046218
    ],
    [
      0.06901284584867937
    ]
  ]
}